{
    "bias": 1.0,
    "learningRate": 0.09,
    "momentum": 1.0,
    "topology": [
        71,
        51,
        31,
        51,
        71
    ],
    "weights": [
        [
            [
                0.26815971785648435,
                0.15945247896795323,
                -0.029656121953205106,
                -0.2822567656563554,
                0.644967474471488,
                0.29259393232716324,
                -0.0428806981881254,
                0.18058136010416193,
                0.7212164589783954,
                -0.24426435729905818,
                -0.286689225182272,
                -0.6012965054570126,
                0.0066671030311953846,
                -0.5964820338316179,
                -0.07412647828640552,
                0.34286008880018026,
                0.216032750784306,
                0.3308803345473922,
                -0.17754422080312957,
                0.07549104924909006,
                -0.0964541385539775,
                0.015453063019596706,
                0.07625854694736693,
                -0.18760758036472105,
                -0.28939043283839494,
                -0.37567726325360606,
                -0.13079035055941293,
                -0.4363166724487178,
                -0.6198640251766984,
                -0.1872559206383485,
                0.024604404765694844,
                -0.20946577479947054,
                -0.05842023919724306,
                0.11465149047026338,
                -0.2474055355575628,
                -0.45335111955257845,
                -0.08086912601950542,
                -0.5633851072403249,
                0.3578322515606803,
                -0.10943797615987783,
                0.3130556020608696,
                0.047350051881103486,
                -0.2462817878231886,
                -0.04734730656065361,
                0.3443596230019371,
                -0.1110741155652495,
                -0.0009454901384726972,
                0.5957567096745416,
                0.08084639969722057,
                -0.15978380704632483,
                0.11722398977173414
            ],
            [
                -0.6558883205797504,
                -0.5582180356274737,
                -0.2901253262113764,
                0.11585166720598433,
                -0.6740393559011185,
                -1.0438421942553278,
                -0.060537875088861604,
                -0.11321818339783013,
                -0.057979814564453544,
                -0.42792331039264736,
                -0.6993604342812736,
                0.04922671792044656,
                -0.6265114808217386,
                -1.0323610030402723,
                -0.06107843400573354,
                -0.38454883195776823,
                -0.03338698038059242,
                -0.5900667994300658,
                -0.46880696138455824,
                0.2861031218601498,
                -0.01818712817360404,
                0.11343234491521453,
                -0.013453745446708187,
                -0.5857547255375739,
                -0.38702290193903605,
                -0.3415997774403004,
                -0.3232903702409845,
                -0.3264357344707791,
                -0.5307911705338121,
                -0.1762951269391371,
                0.08683192232358894,
                0.4815619598985484,
                0.06187549810274924,
                0.146211740071836,
                -0.43682819331489686,
                0.05063566392809247,
                -0.5979032743590398,
                -2.5454217418983047,
                0.03593220050551816,
                -0.8962419769471237,
                -0.2727376809535741,
                -1.3120281831200045,
                -0.035649695602861894,
                -0.5958004978674585,
                4.027283204959418,
                -0.38018239447666613,
                -0.05069181535799544,
                -0.02809816246627435,
                -0.04636432768806994,
                -0.36756182286454936,
                -0.36090546236300225
            ],
            [
                -2.045674471915573,
                0.15815205172190153,
                0.8193720430443532,
                0.9597338124646787,
                -1.6794480654548736,
                -1.3534826436541643,
                -0.16069551189519854,
                0.23186130661669724,
                -1.1521163480723482,
                -0.266196329350703,
                -0.08432299780735965,
                -0.28430757140803625,
                -1.03632254783691,
                -1.2862704731167987,
                -0.2340145322494677,
                -0.4914113140798807,
                -0.12561037936214395,
                -0.5649393500201427,
                -0.5701273311387768,
                -4.596525967326471,
                0.12462952929849232,
                -0.4748827463784191,
                -0.19264356488054507,
                -0.9664226506598438,
                -1.4957421999791607,
                -0.39044809745634607,
                -0.7040862111131755,
                -0.5104901872086427,
                -1.1516354968967046,
                -0.34603996570154416,
                -0.44715518042601315,
                0.2783557806402871,
                0.3853897090866954,
                -0.8672243872547823,
                -2.090115483580806,
                0.2842628262932279,
                -0.217609542621715,
                -0.3322086634219811,
                -0.866833711288242,
                -0.1377953439243359,
                -0.8605723136973685,
                -0.4932172338443569,
                -0.3855230521582115,
                -0.025464246318040992,
                -0.9398730360925585,
                0.2511767028073025,
                0.10250807344844223,
                -0.6024382935004224,
                -0.6708324946733113,
                -0.6672882890633103,
                -0.16845875577063454
            ],
            [
                -0.0991007715977396,
                3.2656287558986268,
                0.5371178516988634,
                -1.1863877755127996,
                0.14306977906603388,
                -0.0780036372346437,
                -0.47312365824092695,
                -0.044055376405667646,
                -1.919319644983357,
                -0.6044155270102128,
                -0.22031695239918353,
                -0.23678438228628482,
                -1.0428594350081957,
                -1.3908153800882952,
                -0.06965922218944119,
                -0.5893246333265646,
                -0.017913183336611908,
                0.3603793436240965,
                -0.6521387858340671,
                -0.35960917846702334,
                -0.24772892179171996,
                0.013387686974130435,
                -0.06944153479711795,
                0.06266186616563146,
                -0.29119008212907305,
                -0.06895905918309786,
                -0.29231001885595265,
                -0.4734452096950922,
                -0.5020586334761589,
                -0.1851267986646287,
                -0.516460510921504,
                -0.18756479791925654,
                0.18250307526500398,
                -0.44308563257785105,
                -0.32780193737839436,
                -0.4224806981040506,
                0.044519958330183095,
                -0.8186026452087863,
                0.07992779899089979,
                0.0169777933420377,
                0.037197270294500435,
                -0.9176804797511552,
                -0.5342475854582986,
                -0.8395615318661421,
                -2.808110317301199,
                -0.24989237075779255,
                -0.22205130124358385,
                -0.09188823512897488,
                -0.3224803297214606,
                -0.4886761932627359,
                0.08374305918193457
            ],
            [
                5.188110449868654,
                -0.45667437701653457,
                -0.4613698625014792,
                -0.8137139159237281,
                -0.4338681447290478,
                -1.05835411298433,
                -0.6775066223335792,
                0.20080351143237143,
                -0.30736806056186644,
                0.06408837370220417,
                -0.5846657708548738,
                -0.3937103480692365,
                -0.4977676703084971,
                -0.3453596668492721,
                -0.21461516641112077,
                -0.12688990452710483,
                0.08576486839881302,
                -0.6442493622759173,
                -0.24512430271981103,
                -0.5870265904029665,
                0.26872150155166546,
                -0.05560487447131368,
                -0.02222377897851837,
                1.4438264981812627,
                -0.7957445269219021,
                -0.8077303203333474,
                -0.6454149682895503,
                -0.09444426308699472,
                0.28818601999234056,
                -0.022106396962744634,
                -0.13109895979917205,
                0.5850444111210741,
                0.3650161109305072,
                -0.29804381716428685,
                -5.3704368158815345,
                -0.19124748461450677,
                -0.678955740609181,
                -0.3909990081613851,
                -0.4673066843108142,
                0.1141652562140579,
                -1.068251265585706,
                -0.9887497502245297,
                0.011210460424765607,
                0.40461930077682196,
                -0.3000481092479826,
                -0.3285758575297265,
                -0.28659167140388225,
                -0.07692298977107852,
                -0.4333297103221735,
                -0.19275367215836148,
                -0.2797995540202122
            ],
            [
                -0.7576359104122072,
                -0.45506542827426943,
                -0.059614311425939655,
                -0.21481602328323093,
                -0.5057689224776272,
                -0.2101919926680088,
                -0.12582156395739388,
                -0.037923240861382705,
                -0.6629351672924084,
                -1.3622515005934375,
                0.08064632158398274,
                -0.1360914865559688,
                -0.3837862691402818,
                -0.2761551716961643,
                0.01512039004625556,
                -0.01785048076473914,
                0.11167962137963255,
                0.05143370418666172,
                -0.2455189605406643,
                0.202097750107064,
                -0.12527428774924237,
                -0.06059406175975143,
                -0.12556476008162465,
                4.27626824995337,
                -0.13915042236850667,
                -0.07752215758558074,
                -0.4672076060182997,
                -0.1831209896549681,
                -0.43062914427144827,
                -0.19904265727396775,
                -0.16392175049527835,
                0.07571116826661253,
                0.05697696109150797,
                0.14942121235078704,
                0.5688966996302748,
                -0.023155492491911026,
                0.061317753251348105,
                -0.16138407005098346,
                -0.518379800948817,
                -2.6946221255816045,
                4.1592941391298535,
                -0.2564005679758965,
                0.11931510328622218,
                -0.327380027637406,
                -0.17443231336439943,
                -0.11775457573989603,
                0.0035495518921309335,
                -0.22689752988034592,
                -0.09812914281426512,
                -0.20365873681222055,
                -0.13902613196432165
            ],
            [
                0.5014930675314208,
                -0.24786866092269005,
                -0.5052060744029804,
                -0.3958167738738288,
                -0.6876905965008898,
                -0.6122147499818944,
                -0.4645932701575739,
                0.13911202170090964,
                -1.0540241411300035,
                0.37361965677712183,
                -0.13567973610711714,
                -0.27384933989864557,
                -0.1644362296517285,
                -0.3788718573969095,
                0.31994529400883653,
                -0.5211607379805321,
                -0.2092193254472625,
                -0.410162198688968,
                -0.28706628304804693,
                -0.454802756800435,
                0.29597651124628993,
                0.06498986835209433,
                -0.3601719196078997,
                -3.8114607170362103,
                -0.21572904395587308,
                -0.45137908804943705,
                -0.3254109370550232,
                -0.20408902943993715,
                -0.17649635793645904,
                -0.2815843203743544,
                -0.03980510583950643,
                0.010803870839792052,
                0.477968443320022,
                0.11549760958191858,
                2.0093169035561402,
                0.06878139108778261,
                0.1693342624881404,
                -0.9151903295297706,
                -0.3956594192951119,
                9.408795338161337,
                1.633408660478914,
                0.3086088723853204,
                -0.004147866657413409,
                0.07086248458226545,
                -0.23024785185998858,
                -0.22662201866419007,
                0.20400828134933327,
                -0.18474846170565365,
                -0.5880353607256348,
                -0.21706318862207455,
                -0.11664892120088537
            ],
            [
                0.9924206180384848,
                0.4916809636027324,
                -0.7253839168242865,
                -1.4439712306450387,
                0.07452665607536228,
                0.1652251344328888,
                -0.25405837766835165,
                -0.024255579697569727,
                1.4769456183946066,
                0.16301812164853802,
                1.453503571503629,
                0.34520246379899144,
                0.38324761749627767,
                -0.1363072994885708,
                -0.14854967486568965,
                0.8501846050896691,
                0.9659231867728282,
                2.195905976815532,
                0.7572653721091382,
                -0.11484207126912051,
                -0.5874444524795173,
                -0.7791453787303196,
                -0.470786049350268,
                -0.9590343048696973,
                -0.04516697928296788,
                0.7088084871937779,
                -0.3210415473775394,
                0.3031997756043639,
                0.07919525791117198,
                -0.23567133376291693,
                -0.851370754403305,
                0.11307062422582823,
                0.6959977878605754,
                -0.7645771317412261,
                -1.414833261108891,
                -0.8665846921808866,
                -0.5269079842345739,
                1.2860078634817151,
                0.9005271021927183,
                0.833863993129519,
                1.0462145707097454,
                1.6646800159949837,
                0.043644913052446735,
                0.6000133053978554,
                1.0706992147086007,
                0.39952004789061724,
                -0.7093117145275747,
                0.7757035133532951,
                1.393297103008644,
                -0.13698345959865468,
                -0.3361399591621491
            ],
            [
                -0.39370620221848723,
                -0.3679722591387192,
                0.6703593377193584,
                -0.06205642613116754,
                -0.14229099116900837,
                0.17947589568410394,
                -0.0007010458912571415,
                -0.3432261345465626,
                -0.02803909663111799,
                -0.15578102150722165,
                -0.01673141036055456,
                -0.23618926955854755,
                -0.06637407065307874,
                5.88519990698888,
                0.021018807459323007,
                -0.21276136919913216,
                -0.013852370279292885,
                -0.37284448497552003,
                -0.26569840134410855,
                0.03768063555669072,
                -0.22091878849730465,
                0.24627807439059723,
                -0.6432562161624172,
                -0.17876040421035583,
                -0.5161929173029898,
                -0.36114862085666144,
                -0.010086470195516409,
                -0.14696501952791582,
                -0.26803813452381087,
                -0.22651266358025865,
                0.4577719847903517,
                -0.13688594402373838,
                -6.67393868536491,
                0.15858421286124402,
                0.08459770977201801,
                0.15979122963020526,
                -0.29038461797792825,
                -0.6241729924046482,
                0.10021679782451778,
                -0.7237011595362832,
                -0.38907365240849096,
                -0.7795001976625259,
                -0.1567253432017719,
                -0.39757753414691355,
                -0.22208231471789167,
                0.04931229363722841,
                -0.11120246344282561,
                -0.015819907656347797,
                0.24323414746471747,
                -0.34901500739265984,
                0.06317607492724234
            ],
            [
                -0.9538563187477836,
                0.1428688651608683,
                0.30609668959132597,
                -0.9016404085242626,
                0.1450778990455422,
                0.5093908777879372,
                -0.11442847685956403,
                -0.3431526501574704,
                -0.7401517688318121,
                -0.563170205654146,
                -0.7121488930546057,
                -0.5988902893130778,
                -0.725509817296336,
                -1.4433163458273772,
                -0.11946372405307104,
                -1.0934670738886323,
                -0.8948268498597299,
                -0.6965631924886636,
                0.42134954230208477,
                -0.04795339462953759,
                -0.20991097762631175,
                0.7527624160856199,
                0.5757092125769454,
                0.19708584857779762,
                -0.3501889294051224,
                -0.259172011446939,
                -0.4991244608216444,
                -0.5784339522667145,
                -0.059591952108661514,
                -0.10222169952252368,
                0.7142283611937557,
                -0.36352543352517774,
                0.09868548011265287,
                -0.20345768650280302,
                0.3899393080924606,
                0.25865160783408303,
                -0.9853634617458513,
                -0.7592362401692282,
                -0.7877312763924923,
                -0.5303226278465015,
                -0.6401097852598419,
                -0.010363795834484931,
                -1.9650188146451761,
                -0.484620744112538,
                0.19982985440207424,
                -0.2141847443861401,
                -0.9267521111138666,
                -0.4361241966259564,
                -0.6784662871186242,
                -0.2516194806794155,
                -0.12162150976503791
            ],
            [
                -1.1005183128573264,
                -0.13188047644403267,
                -0.3257892986128304,
                -1.5955885146876918,
                -0.34691558696968317,
                -0.2669064470167709,
                0.022431829367864267,
                0.3689228426591061,
                -0.988606997253006,
                -0.5347031814084403,
                -0.5254516911733068,
                -0.34495557268887056,
                -0.7533371152187828,
                -0.6832883789505049,
                0.043866395361227856,
                -1.0804540811038497,
                0.28156950279564996,
                -0.5636572365207506,
                -0.11105803399219125,
                0.31834794604254435,
                0.12131379196187121,
                -0.2866480118133184,
                0.30434569472805684,
                -0.12479398618026413,
                -0.8068871537797374,
                -0.5822168865262011,
                -1.1711524039338856,
                -0.4993091672803193,
                -0.6428480659658699,
                -0.7078349523601047,
                0.16593076113497698,
                -0.284659625602035,
                -0.15975616106237492,
                -0.64319012807029,
                -1.1295478690621952,
                0.45013775820643614,
                -0.850481643029638,
                -1.6469836458397882,
                -0.6186042995058677,
                -1.2094203003185795,
                -1.5688312602593426,
                -1.360742483497733,
                -0.4922056418911711,
                -0.2116895700506546,
                -0.09672508067663227,
                -0.4014175732303406,
                2.561494125502394,
                0.15854814451266558,
                -0.6117093643367213,
                -0.46069751062742315,
                -0.03677455690440426
            ],
            [
                -0.10046492173699248,
                -0.5283757447340903,
                0.08383026238397563,
                -0.40412973450532674,
                -0.21934750153815857,
                -0.2207442255862218,
                -0.3509689384643383,
                -0.11570964624489045,
                -1.1369420575407674,
                -0.6901815368312334,
                -0.17266526053592196,
                0.02976911104275747,
                -0.03825689406567944,
                -0.5331565591803196,
                -0.08789154192975474,
                -0.7070870027776042,
                -0.45519865014506145,
                -0.32713555627061663,
                -0.0879776942014581,
                -0.07365391750033377,
                0.12629669779169053,
                0.14384526152019833,
                -0.14448655343329994,
                -0.6121494072376787,
                -0.629887189188815,
                -0.31896784094919284,
                -0.5672485419471359,
                -0.032172563272918536,
                -0.061450651517655476,
                0.019054360604840684,
                -0.24765608360072133,
                -0.16451375580716854,
                0.0601510776264337,
                -0.013935085369999198,
                -0.1381813630619218,
                -0.0955058786225639,
                4.621257250298253,
                -3.758601916667568,
                -0.06445688677576471,
                -0.4887359208863688,
                -0.5570718744468199,
                -0.6739177728383752,
                -0.19934398003967244,
                -0.33299064703481923,
                -0.14057954700255065,
                -0.29049420256351616,
                -0.15571763240917755,
                0.13328208423180382,
                -0.19103583512366007,
                -0.3930034050341866,
                -0.20558068487498335
            ],
            [
                -3.9767946139410477,
                -0.2756992847447777,
                -0.3912059008926547,
                -1.3955858662822422,
                -1.2007059898070043,
                -0.041796252255626304,
                -0.9956767681104381,
                0.25955104700698933,
                -1.042078343038572,
                -0.18645780538839984,
                -0.22342530972520158,
                -0.2961384735622762,
                -0.8501876618745045,
                -0.7803621104702607,
                -0.43122475218031525,
                -0.8426722456215249,
                -0.0889736567701109,
                -0.8971614376046918,
                -0.280023046494323,
                -0.7354454667414951,
                0.6519926410791793,
                -0.21291728162921364,
                -0.2172964705046797,
                -0.3894441909824888,
                -0.9874978947121216,
                -0.49891648100143154,
                -0.6854466820644413,
                -0.8404894644671107,
                -0.6926944960651104,
                -0.24975312418503948,
                0.1786695880459312,
                -0.15871886725082382,
                0.27831947901774967,
                -0.8790505306171826,
                4.826813344795832,
                -0.20854719133129151,
                -0.46019121114889344,
                -1.2353188194854021,
                -0.26825670670611595,
                -1.396995006989326,
                -0.6102875378154372,
                -0.554078011688469,
                0.06519533830799784,
                0.5835539744967309,
                -0.4190514797610806,
                -0.5226473230567213,
                -0.26468835824102854,
                -0.32621614727825277,
                -0.2999529174146628,
                -0.19910527293975883,
                -0.11604702706076013
            ],
            [
                -0.023921148430252538,
                -0.2944951210411619,
                0.06534719853391606,
                -0.5480399859513592,
                -0.3195641428235462,
                -0.03893538423924628,
                -0.34830904462151674,
                -0.00018483527450044392,
                -0.08241869244287228,
                6.954679191334078,
                -0.19487451562585234,
                -0.0991186684757071,
                -0.3404398898824864,
                0.024051053256698256,
                -0.2999730565093064,
                -0.07494537601699768,
                -0.09967609968362387,
                -0.13199378028247769,
                -0.263054526615628,
                -0.15168222854322647,
                -0.1927847488212376,
                -0.05416568064259004,
                -0.39586865168201374,
                0.9664215890688584,
                -0.4478650599357914,
                0.30592025056982064,
                -0.030973644417561928,
                0.015025289426336621,
                -0.6592866598931219,
                -0.12758454563599553,
                0.09766951606500288,
                -0.3177539603378767,
                0.13431546465519142,
                -0.029316175819408194,
                -0.7881135377399097,
                -0.1818352770147268,
                -0.1719982684517119,
                -0.7204850108749273,
                -0.02058403005142342,
                0.35474045696768897,
                -5.558139120824919,
                -0.2864693502804001,
                -0.01928819041937703,
                -0.31423934737360865,
                0.12395111819292007,
                -0.014063434234294236,
                -0.10228405227551475,
                0.2951370987325673,
                -0.17612911503988207,
                -0.11598059530659408,
                0.05061654899012768
            ],
            [
                1.6916707953862384,
                -0.5643173797183303,
                1.277516650162645,
                -0.378959471740937,
                1.7750189019034834,
                0.22086788435757873,
                -0.40237855226769853,
                0.40123005463090955,
                0.30090260679766406,
                -0.4048962587555859,
                0.07409016082756835,
                0.042259143455201285,
                -0.19219404242307034,
                -0.4189813516093517,
                -0.07728575918524579,
                -0.17635404049593945,
                0.0980639875498912,
                -0.7788839505013839,
                0.48187622117817575,
                0.1883824209010305,
                -2.384096402613646,
                -0.26591836437374083,
                0.22403974161321116,
                -0.510063800263808,
                -0.5593151777395011,
                -0.010152221832953464,
                -0.2196755908835394,
                -1.0998308174357976,
                -0.7598040996815277,
                -0.1571425193094774,
                0.5261426214980373,
                -0.48082147033366435,
                0.3097347532452205,
                0.1570090257727596,
                0.2967136815874764,
                0.1299441467115137,
                -0.24033970755059075,
                0.7245659484206078,
                -0.15030537088358828,
                0.09527848816053205,
                0.41284404545047126,
                -0.01468916675942548,
                0.054437195868643956,
                -3.412885424562611,
                -0.12854508976364643,
                -0.033115355371254186,
                0.09035965411638491,
                -0.3261494311953465,
                -0.24112545945811092,
                -0.3331165273068722,
                -0.03042265898150577
            ],
            [
                0.15017862238389293,
                -0.10356294866402649,
                -0.1602439877998042,
                0.5132206646519121,
                -0.22019507507468425,
                8.86024771752716,
                0.2924579669469769,
                0.1584064824977873,
                0.5948035527119369,
                0.375308878318619,
                -0.15070350833556645,
                0.11400706061523093,
                0.29665196953223594,
                0.1568039025599722,
                -0.025259527603382414,
                0.32910869415431193,
                0.2698523320781973,
                -0.0026687956495510764,
                0.09199715762249919,
                0.20717349152145778,
                0.1423497436215536,
                -0.20386480498680065,
                -1.6053966488653857,
                0.012339475227212888,
                0.14139772946453566,
                -0.08866929973147883,
                -0.09917484927460586,
                -0.17587056440265234,
                0.4070060806840468,
                -0.4676603981493724,
                0.1659180132817788,
                1.3745193958175603,
                0.18648745286961535,
                -0.04608377863771663,
                0.6988418444739023,
                0.3123558004151837,
                0.12636595368732764,
                0.07626890056259594,
                0.31039672289706194,
                0.04284318002702883,
                0.2408650138591043,
                0.09582703599023805,
                0.028149816550712317,
                0.05251092638499938,
                -0.017420282600461762,
                -0.15849505134222283,
                -0.1830956544611081,
                0.10457991113885585,
                -0.13594626618054065,
                -0.1306987132025539,
                -0.00110347822640629
            ],
            [
                -0.333112867882834,
                -0.7902271850430421,
                0.03888276601730395,
                -0.16989938454142314,
                -0.26902004388337386,
                -0.5115605119559299,
                -0.40053810427252634,
                -0.26670520868039316,
                -0.17335527361182654,
                0.2757484004897338,
                -0.6111778143041446,
                -0.5939457947793156,
                -0.22501814211407756,
                -0.1752055120991553,
                -0.18644152723127544,
                0.41015730662913485,
                -0.39344132246475755,
                -1.1256056442175133,
                -0.4925958512940012,
                0.02463882188281758,
                -0.20353938748021752,
                -0.3317262919515533,
                0.0621158310628181,
                -0.21827333739915153,
                0.9144446192573276,
                -0.43130873776437134,
                -0.3438829737794655,
                0.3325796974763865,
                -0.8050524775733557,
                0.4155237969709982,
                0.010522662867518686,
                -0.8712967972993564,
                -0.5304896923507559,
                0.003852134148489456,
                0.17541399657442128,
                0.023655673194508592,
                -0.37498219775325137,
                -0.24870725613723668,
                -0.102855956445405,
                -0.11529046783634533,
                0.38548553114790635,
                -1.2054040512867845,
                -0.04538701284447258,
                -0.18197759221736784,
                -0.9087229025115107,
                -0.07405839689533102,
                -0.25566417500202593,
                -0.37291255584008887,
                0.5552902914346912,
                -0.6854004635208678,
                0.07337365008333549
            ],
            [
                -0.48306446199461694,
                -0.1439992935564837,
                -0.1060447639076585,
                0.024016418133829907,
                -0.16671236565487033,
                -0.6913283188938193,
                -0.24121652106850172,
                0.1842283861169206,
                -0.23106266362183267,
                -0.6474648959895819,
                0.2912933300895872,
                0.1524926404598949,
                -0.13568187755562106,
                -0.3669498890875458,
                0.01786762440361248,
                0.006664757975521612,
                -0.11764913428667742,
                -0.1119766283474448,
                6.282410220526971,
                -0.07950693172281821,
                -0.12111371152476982,
                0.5199439826989116,
                -0.3078548208774566,
                -0.5720343997638462,
                -0.439090836189021,
                0.281207921142705,
                -0.30943480088986514,
                -0.009131708397460504,
                -0.00251311723681847,
                -0.477235920426524,
                0.15604519737585373,
                -0.4199946913756479,
                0.585388247022718,
                0.4119566388625809,
                0.15768022972653542,
                0.18574413898998263,
                -0.35211295732341996,
                -1.1059966143984608,
                -0.09108079886906983,
                -1.3284644818139588,
                -0.6840045510044982,
                -0.7158041675751036,
                0.0041185948480588885,
                -0.07683270557975772,
                -0.32989377455685526,
                -0.1539074916589222,
                0.07086777647539665,
                -0.5898921225257944,
                0.16071255415315513,
                -0.8045320315798212,
                -0.1256081324124859
            ],
            [
                -0.5852113703414961,
                -0.012730756241314426,
                0.23583566179353818,
                -0.06558907516285736,
                0.061330266398244786,
                -0.2521622393369196,
                0.2213937045108536,
                0.029001743511136636,
                0.5851132430766136,
                -0.45192499269633185,
                -0.21806970889681487,
                0.12335236936204139,
                0.35152492027354093,
                -0.732677219535487,
                -3.6452557935014944,
                -0.05294805455065734,
                -0.18485171689356722,
                -0.6119150649185421,
                -0.4413164080420873,
                -0.11721175860136837,
                -0.09292166086636396,
                0.14145669144293213,
                0.26929668038105586,
                0.09061332179989348,
                -0.28926453952254694,
                -0.22201613210976745,
                -0.032391235132325,
                -0.41344640566746327,
                0.10316598109891542,
                -0.07184880983888982,
                0.07735101410859506,
                0.02641292340994997,
                0.3534712859177475,
                0.14563036580980823,
                0.25204962124031854,
                0.14240852666400336,
                -0.002525337755638769,
                -0.4838494471340697,
                0.14993753329015608,
                0.43082505207385874,
                -0.6794451865514677,
                0.2747885695644751,
                0.013532242002546291,
                -0.23141101100135877,
                -0.09534531938134129,
                -0.18459162736631785,
                0.2175986539654257,
                0.36140155480635655,
                -0.4024950715238183,
                -0.14938403402053405,
                -0.17048717069590114
            ],
            [
                -0.10992071778112333,
                -0.4885575021995389,
                0.07447397429196397,
                -0.39974832667618393,
                -0.05806252830366328,
                -0.02829926046006972,
                -0.07318551579104655,
                0.24682170695681027,
                -0.12968224960941457,
                -0.9170114106739639,
                -0.49432197251514515,
                -0.18254714009771045,
                -0.046501448738153615,
                -0.19870480179043887,
                -0.01787630604116011,
                -0.24009330462706854,
                0.2859882052014975,
                -0.5114847142786584,
                -4.648209939342843,
                -0.20643564206426274,
                -0.07294510985254933,
                -0.03846217814338026,
                0.20864822326900564,
                -0.25804697973009727,
                0.04137207484959128,
                0.20496255518436465,
                -0.4572492691158541,
                -0.20743186519625204,
                -0.48075548416926633,
                0.2525586958903704,
                -0.151281750120864,
                -0.3150286637937645,
                0.021945126285937637,
                -0.11986836070195282,
                -0.38598372494051947,
                -0.7361343537025007,
                -0.05233187448268657,
                -0.05593948316126364,
                -0.7072877225143912,
                -1.1545202460576345,
                -0.2362929762547768,
                -0.36117001943250354,
                -0.2047106376222998,
                -0.4469698725058696,
                -0.1603826035949844,
                -0.2359586531778722,
                -0.1413504157795038,
                -0.772024790850183,
                -0.006752405074894558,
                3.96971819651726,
                -0.010569093496005212
            ],
            [
                -0.49524839885725364,
                -0.6108577727162424,
                -0.27669550367799506,
                1.8476952018117199,
                -0.2879381097150059,
                -0.03230600437596662,
                0.007070195513045275,
                0.14809707630322894,
                -0.20399172722585232,
                -0.2388257406793401,
                -0.18160455025237932,
                -0.2361552617232321,
                -0.020426871630058598,
                -0.07823199088305367,
                -0.13384031947836772,
                -0.034194626882407084,
                -0.37922214095675133,
                0.21712763421782574,
                0.13235960078428138,
                -0.2504143284084372,
                -0.020668602113456662,
                -0.10415814321321082,
                -0.3373267827904437,
                -0.4481420174809055,
                -0.3087477986977421,
                -0.17045571319088157,
                -0.32119899246108063,
                -0.2039763926436908,
                0.009148597736430729,
                -0.367817927942668,
                0.020828057131559594,
                -0.16421765503155425,
                0.2399606231171941,
                -0.39358129724501,
                -1.2495861613938035,
                -0.2075891320594811,
                -0.13443662655622335,
                -1.5732507237187916,
                6.02559090311285,
                -0.7368852724024813,
                0.09034689602657127,
                -0.1977866658032582,
                0.06806019276945627,
                -0.11900950768027507,
                -0.20808959340110136,
                -0.14000606492697976,
                -0.06719582241528385,
                -0.10046351143263525,
                -0.11340282869573756,
                -0.20646298764006385,
                -0.051772988851354215
            ],
            [
                -0.2528688860274338,
                -0.1576972478491135,
                -0.5234557245115921,
                1.3120915227148375,
                -0.01591895265532129,
                -0.8114298067519579,
                0.18145427772964132,
                0.036392552408102505,
                10.064760721397334,
                -0.1518178570615003,
                -0.14473225600634218,
                -0.11957973865973288,
                -0.04534593356262866,
                -0.08910334110140405,
                -0.021795547375542606,
                -0.015781737295690646,
                -0.194993740073626,
                -0.14675100353371223,
                -0.03853636131911396,
                -0.24664905100175935,
                0.015826812632048635,
                -0.07165231082772458,
                -0.1633375770101976,
                -0.36340031417046526,
                -0.09627594145357718,
                -0.013693387075591095,
                -0.16817330613003437,
                -0.4877674093177031,
                -0.03897268701835977,
                -0.2763832068156844,
                -0.041392340669920424,
                0.1881759601161102,
                0.42909000755225896,
                -0.09470900738768218,
                -0.3440770134550609,
                0.3048696395041053,
                -0.10405225293143262,
                -1.2272878279614832,
                -0.23265890591625227,
                -0.4037280541575212,
                0.29233664039946133,
                -0.11234916574849206,
                0.02860622919221062,
                -0.016659770778873262,
                -0.007818925971739433,
                -0.2600542660501698,
                -0.07109931844059486,
                0.08883476315511536,
                -0.4605195699782577,
                0.035957108913240214,
                -0.11063169836107793
            ],
            [
                -0.4451434509427754,
                -0.2976325675050716,
                -0.23796591094969569,
                -4.398389518466755,
                0.14660082187533632,
                0.1269910490108454,
                -0.07040440895592459,
                0.217843644257727,
                -0.1753506670386093,
                0.031925348198031604,
                -0.2220411416557365,
                -0.14995744587198945,
                0.5707116621039636,
                0.268795711188519,
                0.1999390699889433,
                6.151709995511422,
                -0.3673754134223136,
                0.03384063106230354,
                -0.019229552587640107,
                0.01357491883077823,
                0.14767388815006335,
                -0.144838845194183,
                -0.4294337632206009,
                -0.35901753799336944,
                -0.23414625735841346,
                0.265719032670699,
                0.10825908187241634,
                -0.23828758748823914,
                -0.6061971092373714,
                -0.37162417956690735,
                0.07811017844840508,
                0.5065674223862017,
                0.19189090003115747,
                -0.21528405356939403,
                -0.4144277215987628,
                0.29428200441961644,
                0.11441483934245507,
                -0.33538593165660524,
                -0.0741170682355434,
                -0.22177180548085826,
                -0.07727209907377582,
                -0.8971296845894493,
                0.2130460792927667,
                -0.34750552305976284,
                -0.19029122707943633,
                -0.28244454888987647,
                0.2154251513821982,
                -0.047582728450464365,
                -0.48274913703544925,
                -0.10629289098230904,
                0.021980183657001003
            ],
            [
                0.12449072783945557,
                -0.0337771074132846,
                -0.16817085875275345,
                -0.6739028641005523,
                2.8017678703070463,
                -0.1315450510577522,
                -0.007458041034874592,
                -0.2915255393932028,
                0.11553655349400983,
                0.14962297947846998,
                -0.04458775855520702,
                -0.13668683983888713,
                0.26606546700215905,
                0.4571062606869586,
                -0.06761038754297076,
                -0.04896239399365229,
                -0.1836884005161744,
                0.7442076451971025,
                -0.29629945310305855,
                0.049794769756473435,
                -1.14562755469761,
                -0.011352415723132434,
                -0.2949309726916528,
                -0.1261863429898981,
                -0.2983841633320946,
                0.520905788288703,
                -0.18443012998376865,
                5.076368504373915,
                -2.479805854187702,
                -0.7327739355314073,
                -0.072767912342566,
                0.6665834119177841,
                0.21316923949029315,
                -0.5184974783367625,
                1.2234509845458617,
                0.5077895812656995,
                -0.0011755135861602278,
                1.2130781771834687,
                0.11052080453919,
                -0.05649308351695558,
                -0.31534863555115383,
                0.22859088302304345,
                0.13214411344772636,
                -1.0316237326097728,
                -0.06398987216039528,
                -0.05295197653367348,
                0.1950935120996164,
                0.054505772577669476,
                -0.5846126865273753,
                0.27088807964702655,
                0.11618072790944775
            ],
            [
                -0.05469676737229886,
                -0.3502534822648045,
                0.04387359006128159,
                -0.15000767581557803,
                0.5313375330535193,
                -0.06550379939860124,
                0.06539675094541439,
                -0.09622309067748307,
                -0.31629038491706096,
                0.7652129844119285,
                -0.029251380025115726,
                -0.27064002859513125,
                0.5492247332427936,
                -0.6987273423776135,
                0.08160678406441496,
                0.31803345840781677,
                -0.18290514151653567,
                -0.5236774002764248,
                0.22455483903917223,
                -0.004360190731439516,
                -0.22913330924338499,
                0.28218156668861916,
                -0.29413134664962165,
                -0.23126605546629111,
                -0.22397479293430236,
                -0.13187697948324245,
                -0.3754912896592741,
                -0.009364563315378072,
                -0.2368123642725714,
                -0.0012245512727057728,
                0.15247762587665367,
                -0.41165064757715697,
                -0.31147137853774354,
                0.4371157870794503,
                -0.02959752580034307,
                -0.3403346707580097,
                -0.4860905331769619,
                -0.7727077127203557,
                -0.20324714799455842,
                -0.25437344802272005,
                0.2496113652477253,
                -0.3002885098684082,
                -0.10646980624999895,
                -0.2442062236566171,
                -0.2091820730870014,
                -0.1809078742689533,
                -0.09394715165289558,
                -0.1540990874553659,
                -0.0757871600156522,
                -0.11706039773018148,
                -0.10134736910130872
            ],
            [
                0.5505692720998394,
                0.05985985883883783,
                -0.3683630264891152,
                -1.3797906361477856,
                -0.5679411545073951,
                0.5118325156581383,
                3.655789312676238,
                -0.2344157170105901,
                -0.06638462867099516,
                0.5376270883112242,
                -0.03626251499860039,
                -0.20477810299398566,
                0.17389312105121707,
                -0.3860091160389104,
                0.15643914050425858,
                0.38366514609270336,
                -0.60372243307695,
                0.6932170333297446,
                -0.2883190541106145,
                -0.09409863552387134,
                -0.4179947168832247,
                -0.424213446944384,
                0.012105842094874752,
                -0.18097050918842614,
                -0.21843810262436025,
                0.10721566355506446,
                -0.1101952018178951,
                -0.1804285167167182,
                0.31672167359761794,
                -0.1609450228587398,
                -0.16365219881609663,
                -0.13545303396073627,
                0.3805983168011171,
                0.1418823606121061,
                0.16499800222507227,
                -0.10490149686856892,
                -0.06336782683923389,
                -0.6509351974893214,
                0.14179339253088183,
                -0.49110658092424403,
                0.1892056922468224,
                0.02705656789469786,
                -0.08537713703731405,
                -0.38312588483096216,
                -0.19860797538224656,
                -0.36181742781331044,
                0.12340080084154803,
                -0.43990222468536394,
                -0.10469840363379554,
                -0.05916013667953479,
                0.04030438039090569
            ],
            [
                -1.2275785856447705,
                -0.49121825992241525,
                -0.1493371219209824,
                -0.23748589339710582,
                0.7286309454116006,
                -0.5298426827523293,
                -0.5582004824156426,
                -0.18867611059967154,
                -0.3289577005543807,
                0.05208308636625169,
                0.42944821036154346,
                -0.43700991400528033,
                -0.8674092482732703,
                -0.49060427712035515,
                -0.2180514233230426,
                -0.6546178726938228,
                -0.7431051787483877,
                -0.7156528254212474,
                0.31996378182546686,
                -0.7323159223238177,
                -0.8485762031856838,
                -0.05333964391352353,
                -0.07581413060083184,
                -0.4347939078945461,
                2.6474191412216808,
                0.29929017359109067,
                -1.1698144522612675,
                -1.0533596230326554,
                -0.29453505331378765,
                -1.06734112483135,
                -0.3893179554698726,
                -0.285453210729628,
                0.4387921816936285,
                -0.5016923508323775,
                -0.472290638936781,
                0.52978972522669,
                -0.18548874243560864,
                -0.8080458687530288,
                0.23583809858107319,
                -1.154877022549789,
                -2.1257131599488854,
                -1.043677325391995,
                0.7751898050586687,
                -0.9036797353931099,
                -0.8986246144941511,
                -0.9330313185565927,
                -0.5045257609370142,
                -0.8462762393769565,
                0.12381820998409905,
                -0.4000233878851734,
                -0.05002503216448431
            ],
            [
                -0.5006718074690281,
                -0.08853790491784828,
                -0.8899708537005195,
                0.3835632392589631,
                0.21392996597863467,
                -0.47735277830341893,
                -6.280084810035784,
                0.305297642663393,
                -0.16463549873939168,
                -0.9590738515604323,
                -0.2051253739913881,
                -0.2616930011732509,
                -0.5240447863201748,
                -0.5267305179349889,
                -0.16235579255305743,
                -0.033312339974238,
                0.3567627640910521,
                -0.15981228423107485,
                -0.13409718049685843,
                -0.4291143568501645,
                -0.134871871127769,
                0.2685593295701304,
                0.1702557013753045,
                -0.17171818034313888,
                -0.306566910275256,
                -0.3002539711089338,
                2.732784508345181,
                -0.4314677309643361,
                -1.1156529634905663,
                -0.13397864305247154,
                0.3654495689013563,
                -0.46322691226072227,
                0.2636036137987964,
                -0.045830339739591094,
                -0.9876081270688057,
                -0.7963873466881959,
                0.010008845258278937,
                -1.4331506999113446,
                -0.14963812705381596,
                -0.4139057701910733,
                -0.48815591755570803,
                -0.7548193781256539,
                0.2782839244384453,
                -0.7365072945241167,
                -0.43698214950247843,
                -0.39461045863069333,
                0.6566192613922672,
                0.07352751873794723,
                -0.2628880064795288,
                -0.3906689301892338,
                -0.037586220189368885
            ],
            [
                0.3674779969895035,
                -0.2300229876678313,
                -0.10791425923641972,
                0.3847199917264756,
                -0.13316111570637446,
                -0.20796252257944303,
                -0.07873466936500291,
                -6.743521377455054,
                -0.05950494246087982,
                -0.07135814128838013,
                -0.12816607533008428,
                -0.24175086807427054,
                -0.048885547866050996,
                -0.0891562636633215,
                -0.05190555892731706,
                -0.25151763680890843,
                -0.13328943476563052,
                4.402458575859822,
                -0.014047085331741134,
                0.040301893469849547,
                -0.03126078138508064,
                -0.007107066003757337,
                0.03923931056761136,
                -0.015852256947568505,
                -0.05096268264100125,
                -0.054786725582481766,
                0.16828448672003096,
                -0.32602669383902944,
                -0.33766147421071885,
                -0.1649102103140599,
                0.43137529869829155,
                0.06398379279483463,
                0.03272999230778586,
                -0.04453581817893774,
                -0.13605180802332156,
                -0.01691744401536342,
                -0.02022785157271814,
                -0.09707159165957945,
                -0.12260210220360473,
                -0.12976390485862918,
                0.03646480743041067,
                -0.7828002128173356,
                -0.06276110572483737,
                0.0066557335841769295,
                -0.04228277248990289,
                0.026649267738333444,
                -0.0919620895539788,
                -0.5872288749075216,
                -0.37664654393775127,
                0.10708057672607167,
                0.1462288708481608
            ],
            [
                -0.3840257464064825,
                -0.04137522694573617,
                -0.2481892223105128,
                0.6085833697150236,
                -0.22282454808790603,
                -0.09398589279713551,
                0.17154388103217666,
                0.11164149778970557,
                -0.571836815528387,
                -0.19056562198785595,
                0.12740052589355727,
                -0.08727217471124674,
                -0.010891144641571525,
                0.053369392215183005,
                0.03955047928438351,
                -0.046311684666530475,
                -0.5191771767109936,
                0.7529991850283735,
                0.07989654281716213,
                -0.01629829706343733,
                0.11432755615399909,
                -0.13017496701611486,
                -0.17082288041236696,
                -0.20868813038167375,
                0.28224724311412297,
                0.15200951348972,
                -0.14820921433783904,
                -0.09853075261154395,
                -0.09100123353340236,
                -0.24123120462783013,
                0.24346055277591216,
                -0.06275589531188608,
                0.35283569379800866,
                0.2840303434543491,
                -0.1274297026216156,
                0.14066377182120868,
                -0.26416303471040686,
                0.21141721785234174,
                -0.671356513638937,
                0.09552796666531042,
                -0.10391732680956248,
                0.6778836920035973,
                -0.013300454785705958,
                0.1081483152012314,
                0.08466108390978576,
                0.10978234558208969,
                0.029608449269296008,
                6.024557295418797,
                -0.5430188518702939,
                0.14227249955115223,
                -0.07676371368355807
            ],
            [
                -0.047411002291885586,
                -0.009846954883548796,
                -0.08985453986856314,
                -0.057305099498697526,
                0.2029769676543028,
                -0.4926332579705009,
                -0.08668968598953025,
                -0.4326476495732875,
                -0.5710049485887281,
                0.1543099464689889,
                0.17253275128382514,
                -0.24922190853799164,
                0.01868745694195338,
                0.38681341692803545,
                0.08284746835427449,
                -0.18138921230854213,
                -0.09990529850113777,
                0.14303041536957734,
                0.15450275379764936,
                -0.050804484995192016,
                0.20580019031671024,
                0.024570340869155077,
                -0.20857437430558085,
                0.016085848957815077,
                -0.16924850756905974,
                0.026202273203628442,
                -0.23188467538646712,
                -0.15213228399882844,
                0.49411527173337627,
                -0.22601755295170775,
                0.4046183715954026,
                0.5475118226820829,
                0.32176954363674093,
                -0.06762591189124205,
                0.09366818743289536,
                0.1552706029849428,
                0.1309450467996708,
                0.6133128363207647,
                0.015062015293460839,
                0.18777219693699135,
                -0.23801572302470494,
                14.24513727887331,
                0.044433792507718325,
                0.047758406136905344,
                0.11569256584720404,
                0.03439716414299993,
                -0.08858418782828462,
                -0.5724076068375029,
                0.058913231506008655,
                0.06386170217644818,
                0.10820253677585913
            ],
            [
                0.2328250745735469,
                -0.4706287920274495,
                0.1997133947671552,
                0.16199754359338664,
                -0.3828074382787142,
                -0.14118874674421944,
                0.19374423797203313,
                0.6718594898239859,
                0.7021157478798375,
                0.31636494377741947,
                -0.10432606801244744,
                0.35410441655951114,
                0.6003709230452063,
                0.02148362853203209,
                0.08960041368465826,
                -0.23528522347384248,
                -0.02468342314041326,
                -0.038126239938763296,
                -0.03262618257461482,
                -0.2019748878575256,
                0.046240479539869345,
                0.023281007635108444,
                0.06771398506602391,
                0.43511035310201956,
                0.21511225173740042,
                0.34607866512729796,
                0.4311226494400276,
                0.09140554946854978,
                -0.030760119720692997,
                0.11635841405888699,
                0.3838630541492218,
                0.2741947546133547,
                0.4596752889000299,
                -0.1026290763528965,
                0.3539929446188093,
                0.3610416628722804,
                0.10096055322756822,
                0.3915134161220985,
                0.2515906577500339,
                -0.2581672079667416,
                -0.12496424681198669,
                0.09894609413472083,
                -6.616806457571582,
                0.532702850306131,
                -0.011518649057673896,
                0.0011794420116701034,
                0.24794912609252331,
                -0.15240239661958177,
                -0.48186410121353573,
                0.1303672722321207,
                -0.17608668295482102
            ],
            [
                -0.4691049342595169,
                -0.13555088827091863,
                0.0766654012382355,
                -0.039503231903488395,
                0.4114215275749555,
                -0.36925901659913746,
                -0.1737740543876677,
                -0.6062165237874597,
                0.055774219456202236,
                0.4636676287712615,
                -0.34914792869767325,
                -0.21747558570998785,
                -0.004617742051340621,
                -0.4293778178148663,
                -0.15256395969468955,
                0.277198812869367,
                -0.35794984840010113,
                -0.1970163987482629,
                -0.18636343927501128,
                -0.12000107425196586,
                -0.3929146032699227,
                0.14110778867277826,
                0.14973442166404713,
                0.2265831529472678,
                -0.201777344899673,
                -0.2829749816323692,
                -0.16404251490220156,
                -0.37682783683940163,
                -0.25536041244311547,
                -0.04695832402894508,
                0.18439015662100697,
                -0.5554558514636392,
                -0.20834979330824657,
                0.34829182144321974,
                -0.08959258936412857,
                -0.223587491332959,
                -0.16104696493023973,
                -1.534064976927304,
                0.13070645498984532,
                0.4108060410435072,
                0.22360502077060274,
                -0.9840836026417543,
                -0.10941311429412623,
                -0.21834840408744438,
                -0.24912368855982434,
                -0.20081762682706905,
                -0.02632226826763692,
                0.22447593119268647,
                0.4146016187300294,
                -0.2696338516765568,
                -0.12474534037194374
            ],
            [
                0.2568950556170253,
                -0.7605645575043334,
                -0.4079679308029226,
                0.7354725687379492,
                0.04636460202546572,
                -0.18373200766952721,
                -0.2637081366574065,
                -0.10742590758909419,
                -0.8196281244544276,
                0.03888165978642934,
                -0.4465280115351466,
                -0.15711658846236878,
                0.45612054076054154,
                0.07039995689978129,
                0.2107934168163148,
                0.14458925468224143,
                -0.11609093337588983,
                -0.046066706641024725,
                -0.7073220189892695,
                -0.5796254153499418,
                -0.059675753591062024,
                0.4730345059393636,
                0.1333975173183346,
                0.1679984846945092,
                -0.20852072249954923,
                0.18276448899592324,
                -0.436116486599042,
                -1.1694706374566008,
                -0.672110362691669,
                -0.35805111370386716,
                0.1234199405589929,
                -0.8330330033481479,
                0.5477017309485728,
                0.26644120348533884,
                0.8228389550073875,
                -0.32428044644012394,
                -0.23806147537957945,
                -0.9697967240785225,
                0.5495909970037077,
                -0.6396009598205467,
                -0.5017690494119085,
                -0.5989130642645233,
                -0.11801502018648982,
                -0.35144843562764194,
                -0.19221240731378678,
                1.8273506643164041,
                -0.08213295755774731,
                -0.19569746971236063,
                -0.06732716829245598,
                0.08020119246805944,
                0.013166100890106789
            ],
            [
                -0.8056998390317869,
                -0.10410768341933337,
                0.342309865074385,
                1.0615768829564185,
                0.16206709519443271,
                0.5145352405277235,
                -0.08495525990930612,
                -0.07807449453532299,
                -0.205309387466064,
                -0.5244600294430979,
                2.583869029475769,
                -0.4840605564799652,
                0.11978259700697041,
                0.03178799330857183,
                0.19655856046940126,
                -0.3794369634666932,
                -0.3981769088951223,
                0.4537583954878367,
                -0.8869188666323121,
                0.2507550095352829,
                -0.680521006337958,
                0.9046434715732463,
                -0.06129266677548839,
                0.49096881983212554,
                -1.5784947225577082,
                1.1373609268270966,
                -0.5465960253676879,
                -1.4507919480175355,
                -0.45828979458120345,
                -0.40646814233025186,
                -0.4101167527565039,
                -0.15830213797064957,
                0.27317428105741204,
                -0.18404201804384493,
                0.7963850616359692,
                -0.08398433975823458,
                -0.18773373528086415,
                0.29532056754847735,
                -0.38475792482824256,
                -1.2872586051210353,
                -2.863886018661666,
                -0.7326697838702583,
                -0.14354743214617002,
                -1.454721080571972,
                0.25171774538246355,
                -0.4469110369814072,
                0.14864757886651717,
                -0.38742080771472254,
                0.05116304615331382,
                -0.020149633660656016,
                -0.0861624383469187
            ],
            [
                -0.540735729303861,
                -0.5634746335246987,
                0.3757630960224036,
                0.3739460081251643,
                -0.4240104792309196,
                -0.6119198229450011,
                0.47177672524492903,
                0.3228841334958345,
                -0.23099817883073911,
                -0.4033890983846864,
                -0.18128190712092976,
                -0.13415422058055926,
                -0.4209446198148172,
                -0.45035038306638087,
                -0.11019769837833256,
                -0.1840828987826329,
                -0.5894790761830492,
                -0.349608153072861,
                -0.28542377480573117,
                -0.32453728559431405,
                0.2241019800431665,
                0.2092227855208106,
                -0.4225172356319874,
                0.16207144854297062,
                -0.3481575302387217,
                -0.3481010071344016,
                1.3634938563419579,
                -0.3739862415928333,
                -0.4477785340514211,
                -0.3142564547999929,
                0.5220140249537347,
                -0.3097238193880467,
                0.5238107134202744,
                0.12601237398846896,
                -0.12457558371366725,
                -0.23392078194719093,
                -0.04665218104550723,
                -0.5128978304160102,
                0.04761404195078682,
                -0.3802323240495025,
                -0.43840272773477024,
                -1.0232901772081717,
                0.20028102649687723,
                -0.26292460294030984,
                -0.17153628698448836,
                0.017267408359995205,
                -5.919027359541237,
                -0.5460551136212495,
                -0.42466928679853116,
                0.01248754209748235,
                0.21789794367993143
            ],
            [
                -0.8330130238280219,
                -0.16625311537459214,
                -0.3236102622897256,
                -0.497092156627302,
                -0.2533692484546155,
                -0.6951913197066096,
                0.5005748090544054,
                -0.34276340708542574,
                -0.2621344858136132,
                0.09785335831478803,
                -0.37612716345599434,
                -0.44873712109941755,
                0.09514433925743233,
                -0.4885515549889484,
                0.041558504983187666,
                0.049386805083514854,
                3.8890164556092617,
                -0.009239355569557428,
                -0.2020720689627678,
                -0.27757440706550507,
                -0.3186473345803843,
                0.26333005595983777,
                -0.13519192723700613,
                -0.09787793795745056,
                0.14113944804678985,
                -0.5001921457502843,
                -0.38435496402095054,
                -0.2875285648614616,
                0.1817119339158165,
                -0.1583781717694237,
                0.38610173296587363,
                -0.2789834054586378,
                0.023169895142736905,
                0.14066227279458046,
                -0.15326942518538264,
                -0.18096168022565243,
                0.29733683424605717,
                0.2454284160272767,
                -0.13088166571800097,
                -0.12769030200459655,
                -0.6886845856022474,
                0.057676460085706295,
                -0.03216675073827641,
                -0.4103771349816744,
                -0.06365799380437245,
                0.11163832721772612,
                -0.3087535186477116,
                -0.4520176859027683,
                -0.20223564033999253,
                -0.6948928210465743,
                -0.19016370636557936
            ],
            [
                -0.1993223407977348,
                -0.21235053928810885,
                0.007498261412496595,
                0.04177351091065402,
                -5.5865052928638175,
                -0.5308232198333276,
                0.10883113714559202,
                -0.01844919724245609,
                -0.15051875747744864,
                -0.38941127090071703,
                -0.4202433045352945,
                -0.3756707156298099,
                -0.0941412958963504,
                -0.5291119905473961,
                -0.08985767530108024,
                -0.10683636460101717,
                -0.22584003987670703,
                -0.27304975458854086,
                -0.25770119321846213,
                -0.10752686751194658,
                -4.074121566084947,
                -0.014660331222411921,
                -0.34202406801567714,
                -0.3822630992169789,
                -0.1826233719788678,
                -0.5269195767001673,
                -0.1697025287897856,
                -0.07129276379658299,
                -0.0026555600139372883,
                -0.0313802434207065,
                0.18183302685538744,
                0.024986172107110714,
                0.2904303297869871,
                0.14555039520276536,
                -0.2301666596900123,
                0.01009114003038656,
                -0.21559609963683937,
                -0.013057079170754363,
                -0.3430010437322819,
                -0.6365231429447229,
                -0.33783213360232567,
                -0.48039100763042686,
                0.40803044575740843,
                2.1144323534923553,
                -0.291278637693794,
                -0.12705204836288245,
                -0.26814123624110464,
                0.034070311059901916,
                -0.4255319459692945,
                -0.17832283232131416,
                -0.08747589712886378
            ],
            [
                -0.5353791807977288,
                -0.03485655402597922,
                -0.11310722553599481,
                0.3341541048000429,
                -0.1333915044893162,
                -0.46680850331248225,
                0.2986454116540308,
                0.09011508895944233,
                -0.3461865840943306,
                0.19822477306365985,
                -0.03067626474909177,
                -0.1438618605141198,
                0.16705370708683692,
                0.3189053804628167,
                0.2166215757592465,
                0.0612035389284842,
                -0.22653613660267805,
                -0.04707455333133226,
                0.09668873276135816,
                -0.17671632553997996,
                0.06707897161090715,
                -0.17665172770248083,
                -0.3940168615053511,
                0.01506746911270487,
                -0.027159223035317776,
                0.12983386809733957,
                -0.1321352936078984,
                -0.0729993385835988,
                0.04590734087027723,
                -0.06988266251201856,
                0.10378326092330036,
                0.17208433319706337,
                0.1862100378334824,
                0.051573892806559676,
                -0.08502182959038974,
                -0.008933899639331177,
                -1.0913283368674154,
                15.444090170068751,
                -0.43098209300028584,
                0.20672433790567288,
                -0.01856629629904141,
                0.053373059219004045,
                0.18307753650083566,
                0.05745932221288349,
                0.04531806585992383,
                -0.046759599641331674,
                -0.089578384590352,
                0.1950511692086508,
                -0.5333725126219154,
                0.0954520340844774,
                -0.04643960352435701
            ],
            [
                -0.7652202195883997,
                -0.06484761602601459,
                -0.21110890884397449,
                0.18711347799374914,
                0.482091418257412,
                -0.5456897193672564,
                -0.07811526550020845,
                0.4098978355971972,
                0.6296275540275782,
                0.34260822290524556,
                -0.27578925856202996,
                0.021961655503737774,
                -0.35749383524927325,
                -0.4300019049718197,
                -0.06555660186487769,
                0.20164730580986656,
                -0.6388580054069979,
                -0.3198884884832464,
                0.017049395419769485,
                -0.7105280299698135,
                -0.06364458749064413,
                -4.772084293147998,
                -0.7948888544808521,
                0.2274727297895568,
                -0.4084434502727012,
                -0.09284154004805917,
                -0.8167623827942039,
                -0.09867050103939178,
                -0.048832937996954755,
                0.6383693253720114,
                -2.035150453758321,
                0.14805325832903551,
                0.15152720719302024,
                1.3654072732694318,
                -0.014193637586707247,
                -0.9798864767259122,
                0.25852780389456864,
                -0.3763932063411701,
                -0.047613980433158766,
                -0.3732833672402556,
                -0.09025769406749058,
                -0.21956736854621645,
                1.0269677803783013,
                -0.22622647828633463,
                -0.14883650626648767,
                -0.5907377533791783,
                0.02636118250329648,
                0.05473076555521352,
                0.4661643999474481,
                -0.21278072727396952,
                -0.02818411221365317
            ],
            [
                -0.6329409263815696,
                0.28267515658473225,
                -0.18157149212429188,
                -0.2126583027758157,
                -0.1365228999590599,
                0.30514199035366096,
                -0.2403317664640708,
                -0.6041454944543838,
                -1.0348440905819687,
                0.006310076069259847,
                -0.2057039435806496,
                -0.2849239832107261,
                -0.49686674037287054,
                -1.001638037802796,
                -0.09437125347165368,
                0.0882358476489023,
                0.06764001480581028,
                -0.37141541987654053,
                -0.44602190999176167,
                -0.10840265335920173,
                -0.1746522949190438,
                0.3467595011911157,
                -0.01329033800147538,
                0.11459412104376025,
                -1.521345201948622,
                -0.40849672927889213,
                -0.45238184509715185,
                0.3531694428439749,
                -0.4659638401654775,
                -0.001830890604341716,
                0.647320177932192,
                -0.01875931549935381,
                0.213926934382329,
                0.5357766321635588,
                -0.591198245887294,
                -0.7288547732124674,
                -0.22881555356918162,
                0.2803415998937513,
                -0.30206402960199513,
                0.3042861255278839,
                0.7023912278098472,
                -0.2982735721140158,
                -0.08957507684874622,
                0.09095159801151488,
                0.3973037809031405,
                -0.04755857187316087,
                -0.06016157247637892,
                0.401189586497492,
                0.5011630989248645,
                -0.08674556073815619,
                -0.06671147797213557
            ],
            [
                -0.23116437040085286,
                -0.08263477101936088,
                0.49482008329129507,
                -1.1010267653541475,
                -0.51804865880703,
                -0.25888630070067153,
                -0.2885757473011221,
                -0.14429495611074766,
                -0.7222800555977422,
                -0.48524548662376027,
                0.33903023167116514,
                -0.4046221814650489,
                -0.8318037033909558,
                -1.1368346612186824,
                -0.3029839863903084,
                -0.6996958424559384,
                -0.8432000661565465,
                -0.62363446630328,
                -0.5808957764901491,
                -0.3416793602137324,
                0.07985912975949924,
                -0.13680799175356273,
                0.2564854408821055,
                -0.4276671146891879,
                4.4073128492884965,
                0.31746994037777726,
                -0.08456573710012218,
                -1.1069778518097857,
                -0.4145323741807862,
                -1.2285450199126358,
                -0.30133948617094025,
                0.40266077076834417,
                0.3350386507792147,
                -0.19605124680399239,
                -0.5624565248556347,
                -1.167383647506926,
                -0.35224593636758966,
                -0.9512974781038168,
                -0.4251378572203808,
                -0.5789261110019446,
                -0.42839517349442935,
                -0.16471898553963968,
                -0.216545149301118,
                -0.011388003599321543,
                -0.1432885281697187,
                -0.516161223895328,
                -0.011970796721795794,
                -0.5224294475312065,
                -0.5123674397872543,
                -0.4463873855897511,
                0.035669601334910164
            ],
            [
                -0.029497692436729055,
                -0.17051940609531505,
                -1.3897216901752418,
                -1.7271140718315432,
                -0.582601549586236,
                -0.7097779182505076,
                -0.48867844039932545,
                -0.4022732382045532,
                -0.1652393452674259,
                -0.26102209627582995,
                0.05991219303683891,
                -0.4012795728255616,
                -0.7257163185887986,
                -1.0472016974901424,
                -0.09371602403185443,
                -0.45445975643905706,
                -0.12002860256346708,
                -0.639525174538214,
                -0.31687735005824585,
                3.3542073730309196,
                0.16188324434343532,
                0.11122720453419248,
                -0.40213067555679416,
                -0.6345415339664131,
                -0.7067950122159296,
                -0.11784077164246992,
                -0.43600625497336365,
                -0.23235511282107824,
                -0.24342552602067596,
                0.08110315306696618,
                0.06648555869430849,
                -0.2846959712729542,
                0.5571843301524054,
                0.10234140604438975,
                0.018061066502086377,
                -0.451930249177116,
                -0.4765681479948275,
                -0.029545223133785693,
                0.44192539538322145,
                0.16766521801219877,
                -0.7600852134827473,
                -1.5384429882762383,
                0.1095722394999168,
                0.2478996626408108,
                -1.0803993739123083,
                -0.46229574938175566,
                -0.48285486827230767,
                -0.5193335137033215,
                0.01669789120244236,
                0.05459634075989523,
                0.3763373340321936
            ],
            [
                -0.9566378141026286,
                -0.11609504644270016,
                -0.9497479496810236,
                -1.8920125111781594,
                -0.44295095549864744,
                -0.1653945447923951,
                0.02988796259837978,
                -0.7322411639917235,
                -0.40263667354330973,
                -0.6621162596349329,
                -0.7535493887599953,
                -0.3873669622942709,
                -0.6266666691133717,
                -1.211751238575623,
                -0.13064743705528217,
                -0.7927778547996073,
                -0.44810300136058495,
                0.13315314438674003,
                -0.7099178575529447,
                -0.907571222746623,
                -0.4607412307278849,
                -0.2796926312658958,
                0.19489582001353278,
                -0.18400517733423444,
                -4.454156124809644,
                -0.7178475760001313,
                -0.08293840875958568,
                -0.6671857929450425,
                -0.8111542096799591,
                1.7989122635373083,
                -0.747396709615413,
                -0.3336406195671122,
                -0.06289842793706993,
                -0.31399164788812145,
                -1.3799225221304918,
                2.4928048132991143,
                -0.8481117268634549,
                -1.4375315584194377,
                0.09785728019534269,
                -0.6777917554722739,
                -0.7414270057100616,
                -1.5974841551749623,
                0.13253233351897606,
                -0.9647353729804475,
                -0.25271450299940074,
                -0.29374762893051176,
                -0.5201661568113162,
                -0.4154653693967849,
                -0.41015738155215103,
                -0.07000772081525677,
                -0.3762216788203094
            ],
            [
                -1.0911888723813106,
                -0.3489592279830439,
                0.009781389920240134,
                -0.8367983581813921,
                0.3480299794472874,
                0.06554556095120534,
                -0.39347794475884473,
                -0.22742449128820375,
                -1.2484327390076277,
                -1.0022883579238262,
                -0.34395551595687696,
                -0.0597443924344777,
                -0.9136092344832714,
                -0.8950548370258568,
                -0.38581677401351916,
                -0.35086543729204306,
                -0.6570825482447782,
                0.24106454591190218,
                -0.513778323704867,
                -0.3818240778356393,
                0.1286425091137216,
                -0.05246799968974655,
                -0.161886609505507,
                -0.9955722595734828,
                -1.029711589630413,
                -0.7024202665852444,
                -0.2636098522386961,
                -4.6601977471844735,
                5.1538488115290315,
                -0.1614495599376532,
                -0.005336483997436636,
                -0.5094074825956575,
                0.018974415301256934,
                -0.08947810450189897,
                -0.022052062336244297,
                -0.12477062900475415,
                -0.4711025431105775,
                -1.8593106855179955,
                -0.8782343718644627,
                -0.3307304941166364,
                -0.5338011999864218,
                -0.7915522660758084,
                0.00042102358369514384,
                0.22171384544309625,
                -0.46411048031155333,
                -0.07119802631010527,
                -0.1718521134004373,
                -0.3749530876885596,
                -0.45896942295391896,
                -0.6006159230997377,
                0.030001091938708056
            ],
            [
                -0.15426597846821813,
                0.05056521355369574,
                0.2620408281262383,
                -0.08005896835484928,
                -0.4200647740668366,
                -0.38398220287247736,
                0.21886948715568333,
                -0.14114418976498072,
                0.1596412871400246,
                -0.4698095442145897,
                -0.3558041571624056,
                -0.48186990761120563,
                -0.19179698061081385,
                -0.09663825312404796,
                -0.11091715010428392,
                -0.2587051083976359,
                -0.48861443916685565,
                -0.5274579871433506,
                -0.18494451236225698,
                -0.34228040799311693,
                0.29374357174017934,
                -0.2630874171015734,
                -0.13511120553781436,
                -0.3018518610176623,
                -0.18729093851085113,
                -0.42639112585332045,
                -0.09414280043160743,
                0.07349306414473736,
                0.09663287598615727,
                0.09168785521017124,
                0.010213996789716828,
                0.06997769249755051,
                -0.05361525303328525,
                0.08868884205812298,
                -0.13455361917717915,
                -0.37153086029515325,
                -0.17071761781243813,
                -0.3310343969075459,
                -0.19129409864657884,
                -1.0309373113335114,
                0.05942547784753242,
                -0.7988673590101346,
                0.18267859691526392,
                0.10513257380674608,
                -0.2537630756438026,
                -0.22301487723979194,
                -0.12700404740268886,
                -0.35794773564801885,
                -0.4728022647809157,
                -0.170218516795475,
                -4.843418760600732
            ],
            [
                -0.1948565911177795,
                0.008393612358627001,
                0.2223257959992254,
                -0.32834884230291256,
                -0.6106020158076996,
                1.9543720459997143,
                -0.09120039673630624,
                0.14003362102925226,
                -0.4625337731049186,
                -0.3607671831021663,
                -0.22610955966033264,
                -0.007960845332404482,
                -0.2900101749032361,
                -0.20223820073821677,
                -0.005051626511887567,
                -0.09407506879296211,
                -0.045530464478755785,
                -0.8020372952389517,
                -0.019040714322167505,
                -0.14933308098923428,
                0.8752433772480939,
                -0.09784527750271721,
                -3.1107016413365516,
                -0.22855476795689184,
                -0.13274521398715566,
                -0.4645498592549948,
                0.1330376472973013,
                0.2825865766086125,
                0.47449770955173287,
                -0.31333647486309923,
                0.46976111196266424,
                -5.935645587072733,
                0.8610073401281528,
                0.029516376032791614,
                -1.4861846847733293,
                0.2601947990863978,
                -0.22520247548390226,
                -0.8240153357600946,
                -0.23392415768551378,
                -0.2296061545296991,
                -0.03142037417744815,
                -0.12277159966245295,
                0.3624105824041703,
                0.30877616087765913,
                -0.13595203398687342,
                0.002607005752257746,
                0.06313150169744429,
                -0.6064155024749152,
                -0.3840405620866718,
                -0.3372911800179323,
                -0.4098590462173918
            ],
            [
                -0.44606602098811254,
                -0.15088356175247852,
                0.20055571160962876,
                0.5810096951018308,
                0.1333292651007858,
                -0.41400168048157476,
                -0.12846785359141608,
                0.25256713854083784,
                0.4138979534858565,
                0.14795507912908193,
                -0.09067973562267347,
                0.01794113861483437,
                0.2493727774788875,
                -0.19798220866492658,
                0.07358095084813782,
                0.19998930390802314,
                -0.11804990332893232,
                -0.12746312627212783,
                0.23806167926208566,
                0.07667239848549981,
                -0.14164247661429863,
                0.7920805329833479,
                -0.7840765242864499,
                -0.16840142036179945,
                0.34249707000272983,
                0.39516178917618605,
                -0.42013098093753304,
                -0.11587774295007669,
                0.18243051937778815,
                1.9484191742187453,
                -0.11056321118263285,
                0.347110600070734,
                0.18998137471240364,
                -9.043677402114657,
                0.08544819362546031,
                -1.3346158194759223,
                0.16944403261934426,
                -0.18804806644646516,
                0.1340652343282602,
                -0.1335937200406483,
                -0.6050078419849118,
                0.2984266215160142,
                0.2391206823787958,
                -0.045373245168133194,
                -0.08589211215269493,
                -0.14911234464308248,
                0.04288083816535449,
                0.1961360422921548,
                0.3970526396201203,
                -0.30909435147016434,
                0.1456412670522009
            ],
            [
                -1.5185651331268908,
                0.5596821087684629,
                0.2091238869005265,
                -0.4763466866065776,
                -0.5346540072791179,
                -0.22589764560689943,
                -0.1858706027660338,
                -0.1433733413660073,
                -0.95351840642156,
                -0.0796607778464089,
                -0.2595770338077823,
                -0.17621904577813127,
                -0.8953195631363403,
                -1.054252833201579,
                -0.05989246114594864,
                -0.7168832764779991,
                -0.01609028097898808,
                -0.6940272795355485,
                -0.4827107494208947,
                -1.0686443773749124,
                -0.05454186168974827,
                0.3336067437239044,
                -1.03596081921747,
                -0.1444464071861993,
                0.04721893381765114,
                -0.29379792304228686,
                -0.44088843803445005,
                0.04106971175094993,
                0.2243777585373991,
                0.5126877559741704,
                0.042283157454408304,
                -0.6410739702187858,
                0.4649476083897936,
                0.825269760602306,
                -0.34644599979677937,
                -0.12101944354655993,
                -0.3106676116872017,
                0.06406152850935747,
                -0.8098870438008922,
                -0.3151023521565098,
                -0.5804802005830898,
                -0.7014278441215773,
                -0.03782396405407495,
                -0.27883660817011774,
                0.5015771128387535,
                -0.47542426979201247,
                -0.14203963596202474,
                -0.8288254309740221,
                0.25718677222437875,
                -0.17330347755987946,
                -0.21120094771109973
            ],
            [
                -0.39819325192668964,
                -0.8423791823983842,
                -0.476830872288791,
                -2.4393650965215192,
                -1.1268234253469422,
                -1.8683112792235865,
                0.36858298734323935,
                -0.711484169679425,
                -0.9359650306144723,
                -0.38515198506657816,
                2.01135229237203,
                0.21147397084526146,
                -0.46082407435709,
                0.02344565244388228,
                -0.8093847398717684,
                -0.5871874491292631,
                0.3387464600638819,
                -0.1774222884387844,
                0.001291865181068668,
                -0.03941770935533565,
                0.45463096741390563,
                -0.23405840947750411,
                -0.4846944514692398,
                -0.7777731523417549,
                -0.03446230723152427,
                -0.5011076754579847,
                0.5500997278685779,
                0.4169819274679248,
                -0.45971813799698125,
                0.19715596965233986,
                -0.3469404548213923,
                1.0651486639099916,
                0.162172346169627,
                -0.2257208118784548,
                -0.7801484579164983,
                0.03696291086626918,
                -0.47782472944746995,
                -0.9716329819819798,
                -0.19018900846191739,
                -0.3290307516653237,
                0.4860570403428146,
                -1.0513609630966874,
                -0.8502530975254419,
                0.8172390759034844,
                -0.46645168424338623,
                -0.05729074042099203,
                0.2362100665654663,
                -0.46296518758460753,
                -0.6193501312946624,
                -0.07264684452889973,
                0.11119708972740261
            ],
            [
                -0.41324716920095383,
                0.25715991986954867,
                0.01926518204612166,
                -1.2363655579775117,
                -0.023578558474992146,
                -0.09874173369412616,
                0.173427563557931,
                -0.4228393137381817,
                -1.058414983836521,
                -0.9336998114838058,
                -5.679174115797004,
                -0.73775237718455,
                -0.7350349564691759,
                -1.537101298088858,
                -0.6200283327928212,
                -0.8804594999933467,
                -1.016831930111754,
                -0.4688982334588052,
                -1.0640396356055541,
                0.008116606940498103,
                0.3391709075098655,
                -0.18146556349184653,
                0.3984468102444017,
                -0.256377656012084,
                -0.431918670773226,
                -1.5872267941906735,
                -0.3409132612365525,
                -0.8418284409066924,
                -1.0759144276365358,
                -1.7690091551435354,
                -0.028826996066924244,
                -0.02099917340312141,
                0.08544175075753724,
                0.10992551364283173,
                -0.17572264629287299,
                0.15267996997864047,
                -0.11238923911385193,
                -1.8847184606871257,
                -0.2944119964017113,
                -0.6969664487296626,
                -0.9867524851301179,
                -1.2919749768386457,
                0.39302390856667996,
                -0.9579556213628392,
                -0.3182770408063298,
                0.41201494291970414,
                0.14661977043857682,
                -0.7370081854431476,
                -0.7179907209340055,
                0.02848148384866071,
                0.34606079784030813
            ],
            [
                -0.22652804542248428,
                -0.6980962762570513,
                -0.8197237331149432,
                -0.5439139519493056,
                -0.407954317838193,
                -0.929624321131804,
                -0.4197391610713623,
                -0.2813749864378354,
                -1.208889370445836,
                -1.2453629708106302,
                -0.1763043308170062,
                -1.2567167519549138,
                -0.5589988943613368,
                -1.7475486820307347,
                7.142188057149754,
                -0.5789518689296107,
                -0.7808025557033035,
                -0.6692957160058955,
                -0.5464025904628684,
                -0.29190374281335774,
                0.35666426958484043,
                -0.35174992604204836,
                -0.11795255928623231,
                -1.079355836487546,
                -0.5378437739190414,
                -0.6608820081529712,
                -0.2441655312080497,
                -0.29113738893281954,
                -0.6921599046107009,
                -0.4870336854724342,
                -0.46177767462028485,
                -0.28315428506496204,
                0.06852668671736722,
                -0.403965075929218,
                -0.6960911076241675,
                -0.40029897465005904,
                -0.9083313321383218,
                -1.5130098602680704,
                -1.3494558946171213,
                -1.3324610241059902,
                0.1378613913050561,
                -2.105985834678609,
                -0.1641922257538296,
