{
    "bias": 1.0,
    "learningRate": 0.05,
    "momentum": 1.0,
    "topology": [
        10,
        7,
        4,
        1
    ],
    "weights": [
        [
            [
                -2.237954388293487,
                -2.236910541481168,
                -2.2399240367741093,
                -2.240268146411567,
                -2.233969674728674,
                -2.240599423406169,
                -2.2412972065761245
            ],
            [
                -1.7659910959523688,
                -1.7652215439108694,
                -1.767491784588714,
                -1.7678917221115003,
                -1.7626266386798397,
                -1.7680545465816009,
                -1.768672746292052
            ],
            [
                -1.2938218388056286,
                -1.293284561746894,
                -1.2951965487392398,
                -1.2952704124884176,
                -1.2913861818280727,
                -1.2954168530525796,
                -1.295842669294108
            ],
            [
                -0.821943055323608,
                -0.8214512054597445,
                -0.8227451910891694,
                -0.8227640549463432,
                -0.8201755741630032,
                -0.8229709595333834,
                -0.8233366672485767
            ],
            [
                -0.34985081535243745,
                -0.3496411138165704,
                -0.35024477943262217,
                -0.350350708517137,
                -0.34895527849127733,
                -0.3504849548574181,
                -0.35054918081264996
            ],
            [
                0.12226669840510544,
                0.12221143822853874,
                0.12209860974790772,
                0.12205845418701645,
                0.12225017761645272,
                0.12214660051229193,
                0.12218070157664515
            ],
            [
                0.5942886199609321,
                0.5940686999444801,
                0.5946311952118812,
                0.5946631734856599,
                0.5935127687232525,
                0.5947753101769607,
                0.5948870696997292
            ],
            [
                1.0661459218489262,
                1.0657122406511972,
                1.0669785008468324,
                1.0671379198413977,
                1.064568390891354,
                1.0672390953772108,
                1.067540243180995
            ],
            [
                1.538188229825664,
                1.5376262057874597,
                1.539327005493534,
                1.5394963109250694,
                1.5358576833268371,
                1.5396756219928005,
                1.5402338748168907
            ],
            [
                2.0101893550111245,
                2.0095061841372504,
                2.01183740862595,
                2.012092049297975,
                2.006989223940106,
                2.0122716360104262,
                2.012887779226857
            ]
        ],
        [
            [
                -0.9103817226403114,
                -0.9104483881797553,
                -0.9103419962706464,
                -0.9104772628527084
            ],
            [
                -0.9336870328574856,
                -0.9336989096691188,
                -0.933641132126567,
                -0.9338354313546231
            ],
            [
                -0.8605007359269882,
                -0.860532463485263,
                -0.8605207310116576,
                -0.8605387247091567
            ],
            [
                -0.8519349885175906,
                -0.8518319993399284,
                -0.8519064284979683,
                -0.851842626210721
            ],
            [
                -1.0059136047885442,
                -1.0058674186874628,
                -1.0058972988485897,
                -1.005762235456626
            ],
            [
                -0.8440982437237528,
                -0.8442358946870413,
                -0.8441753038752757,
                -0.8441051257453589
            ],
            [
                -0.5850065172638987,
                -0.584907796995634,
                -0.5850399584587801,
                -0.5849614945703239
            ]
        ],
        [
            [
                -16.018530401288363
            ],
            [
                -16.018451554238602
            ],
            [
                -16.018444952300193
            ],
            [
                -16.018261086372785
            ]
        ]
    ]
}
