{
    "bias": 1.0,
    "learningRate": 0.05,
    "momentum": 1.0,
    "topology": [
        10,
        7,
        4,
        1
    ],
    "weights": [
        [
            [
                -2.935126775662579,
                -2.8787492801154335,
                -2.9653313010653704,
                -2.773598634618575,
                -3.1031668013789577,
                -3.0680375935800193,
                -2.862167837900643
            ],
            [
                -2.3988399345893097,
                -2.352783226283625,
                -2.423388726658841,
                -2.2668217542786206,
                -2.535803808425098,
                -2.5071084110521245,
                -2.339255806898473
            ],
            [
                -1.862260924274578,
                -1.8266530570973887,
                -1.8813642069899812,
                -1.760086720890939,
                -1.9682482376801647,
                -1.9460355087882162,
                -1.8162963204160403
            ],
            [
                -1.3258881570764818,
                -1.3006131027320893,
                -1.339457783219166,
                -1.253380978427001,
                -1.4007918199661833,
                -1.3852226815530098,
                -1.2932183543445865
            ],
            [
                -0.7895577132305278,
                -0.7746381784765735,
                -0.7974267769088949,
                -0.7464067345294005,
                -0.8334214877464513,
                -0.8241815095962469,
                -0.7702482738339158
            ],
            [
                -0.25310963946398946,
                -0.2486591198338166,
                -0.25552488468459184,
                -0.23980278376379002,
                -0.2658261396923256,
                -0.26321606498897343,
                -0.24718282504507283
            ],
            [
                0.28325437124279434,
                0.27738713648690105,
                0.2865288278619177,
                0.2670709534413045,
                0.30159903965695195,
                0.2976828415654118,
                0.2757243642519829
            ],
            [
                0.8196265386440524,
                0.8035173209373969,
                0.8283619250049896,
                0.7737812409870101,
                0.869153101262878,
                0.8586499841816899,
                0.79877618742446
            ],
            [
                1.3561638102421034,
                1.3295496231407269,
                1.3704776959186493,
                1.2805864598075682,
                1.4366607868867998,
                1.419503791171634,
                1.3217482910647715
            ],
            [
                1.8924559003930705,
                1.8555421336957478,
                1.9123325583650597,
                1.787401468367186,
                2.00409619556619,
                1.980550502916552,
                1.844779687793082
            ]
        ],
        [
            [
                -1.5234102439154846,
                -1.5234311921331039,
                -1.5234184858180313,
                -1.5233242610572006
            ],
            [
                -1.4786886231211325,
                -1.478715298634212,
                -1.4788211787352432,
                -1.4788462508810678
            ],
            [
                -1.5473884422935749,
                -1.5472226664245388,
                -1.5473557058728944,
                -1.5473613006914408
            ],
            [
                -1.3956828385771094,
                -1.3958525940961384,
                -1.395789474116475,
                -1.3958015005914504
            ],
            [
                -1.6570338222079817,
                -1.657085452517023,
                -1.6570063406975057,
                -1.6570904391306223
            ],
            [
                -1.6290268648811161,
                -1.628920322144666,
                -1.6289947432531675,
                -1.6289212039399832
            ],
            [
                -1.4657722152188841,
                -1.4657281463348595,
                -1.4656235350060738,
                -1.4656540152180633
            ]
        ],
        [
            [
                -3.5522330662372377
            ],
            [
                -3.551971513576077
            ],
            [
                -3.552236753998699
            ],
            [
                -3.552186714045201
            ]
        ]
    ]
}
