{
    "bias": 1.0,
    "learningRate": 0.05,
    "momentum": 1.0,
    "topology": [
        10,
        7,
        4,
        1
    ],
    "weights": [
        [
            [
                5.844499826707627e-05,
                -7.854366461075757e-05,
                8.144737440027491e-05,
                8.1750251523266e-05,
                -1.249271838733565e-05,
                6.651269445614347e-05,
                3.733402997259433e-05
            ],
            [
                -6.438322986065094e-06,
                5.637571125439033e-05,
                3.550789067871742e-05,
                -7.971494006511084e-05,
                -1.3125570705005925e-05,
                8.535296037404391e-05,
                -9.611422883164368e-05
            ],
            [
                9.046814410287494e-06,
                -1.788347514723478e-05,
                -3.10802054372043e-05,
                -7.030797654683155e-06,
                1.4103316922401324e-05,
                -5.4657367497083426e-05,
                1.0950495372362266e-06
            ],
            [
                4.211868599396079e-05,
                3.627165323302315e-05,
                -5.65155671114737e-05,
                8.668207611053914e-05,
                -1.0291844151690105e-05,
                8.250393923649355e-05,
                -4.9848430777294696e-05
            ],
            [
                4.9819856545239445e-05,
                8.273951105074104e-05,
                7.841243660833216e-05,
                4.95341311982972e-05,
                5.9559134440061084e-05,
                4.262555793402039e-05,
                2.50353502003264e-05
            ],
            [
                9.101450959701826e-05,
                1.2069694246008672e-05,
                9.937249321635389e-05,
                -3.322668980646009e-05,
                8.434366950378146e-05,
                -9.01848448537055e-05,
                2.6843374664431628e-05
            ],
            [
                6.867984485847457e-05,
                7.597403399178523e-05,
                -2.5152186217365888e-05,
                1.2522022525358274e-05,
                2.9433835786063948e-05,
                6.488426517277044e-05,
                6.0255226864056795e-05
            ],
            [
                4.260072975202375e-05,
                -1.174161107861346e-05,
                9.315965789536726e-05,
                -5.168672556192708e-05,
                -9.729369582199024e-05,
                9.228261678195818e-05,
                8.754988630436024e-05
            ],
            [
                5.44596123204387e-05,
                -8.189049299691296e-05,
                -9.683743436256865e-05,
                2.5299266603610922e-05,
                4.9279143674719623e-05,
                -7.376381205028618e-05,
                7.377149245371205e-05
            ],
            [
                8.383321956453769e-05,
                -9.061714980166226e-05,
                -4.663223626927949e-06,
                -8.118619254274182e-05,
                -9.268941077723446e-06,
                8.67771815845517e-05,
                9.96870974131038e-05
            ]
        ],
        [
            [
                7.211331204851576e-05,
                -7.094571371473246e-05,
                4.528344463442645e-05,
                5.052968113727133e-05
            ],
            [
                6.105496500903065e-05,
                -8.320845228297863e-05,
                -3.6890781566561084e-05,
                8.430869930657447e-05
            ],
            [
                5.649953070473064e-05,
                4.155207204805036e-05,
                9.045215020899251e-05,
                5.4665050404389734e-05
            ],
            [
                2.32398430319932e-05,
                -5.223901051158793e-05,
                -8.793312444022138e-05,
                -9.833695331827302e-05
            ],
            [
                9.315685603109905e-05,
                -2.0220097868148664e-05,
                -2.9453588789635094e-05,
                -2.1505268040024778e-05
            ],
            [
                -1.7798612842164204e-05,
                6.646131792842408e-05,
                -5.642841957943719e-05,
                -9.768741983778844e-05
            ],
            [
                3.963523027195029e-06,
                -1.1237301653608411e-05,
                -6.139103691403359e-05,
                3.403590923770567e-05
            ]
        ],
        [
            [
                -2.460383766742579e-05
            ],
            [
                5.1880725139024034e-05
            ],
            [
                -5.55525144130484e-06
            ],
            [
                9.98268713509384e-05
            ]
        ]
    ]
}
